#! FIELDS refcv.morethan b1.bias der_refcv.morethan
#! SET min_refcv.morethan 0.0
#! SET max_refcv.morethan 96.0
#! SET nbins_refcv.morethan  301
#! SET periodic_refcv.morethan false
    0.000000000   24.845429308  -15.731902278
    0.320000000   28.404689693   -7.091287334
    0.640000000   29.701406251   -1.435482755
    0.960000000   29.553091958    2.060657358
    1.280000000   28.544611243    4.032740599
    1.600000000   27.082762867    4.963669690
    1.920000000   25.440081055    5.214351029
    2.240000000   23.789671321    5.049156097
    2.560000000   22.232634314    4.656904687
    2.880000000   20.819400764    4.168041715
    3.200000000   19.566099773    3.668592877
    3.520000000   18.466907960    3.211407404
    3.840000000   17.503175475    2.825127996
    4.160000000   16.649993916    2.521267522
    4.480000000   15.880758479    2.299718790
    4.800000000   15.170179851    2.152976683
    5.120000000   14.496118807    2.069310726
    5.440000000   13.840546157    2.035089975
    5.760000000   13.189871241    2.036430625
    6.080000000   12.534832182    2.060309232
    6.400000000   11.870099224    2.095260686
    6.720000000   11.193707777    2.131759487
    7.040000000   10.506409124    2.162365195
    7.360000000    9.811003369    2.181697808
    7.680000000    9.111700277    2.186295893
    8.000000000    8.413538552    2.174399391
    8.320000000    7.721882200    2.145689806
    8.640000000    7.042003417    2.101012809
    8.960000000    6.378754503    2.042101885
    9.280000000    5.736326193    1.971316429
    9.600000000    5.118086215    1.891403427
    9.920000000    4.526489540    1.805288418
   10.240000000    3.963050406    1.715898751
   10.560000000    3.428365593    1.626020026
   10.880000000    2.922178394    1.538185043
   11.200000000    2.443473161    1.454593400
   11.520000000    1.990591024    1.377059094
   11.840000000    1.561358306    1.306982947
   12.160000000    1.153220258    1.245346403
   12.480000000    0.763373829    1.192723134
   12.800000000    0.388894346    1.149304951
   13.120000000    0.026852055    1.114938665
   13.440000000   -0.325584453    1.089170768
   13.760000000   -0.671059995    1.071297120
   14.080000000   -1.011960903    1.060415116
   14.400000000   -1.350359934    1.055476190
   14.720000000   -1.687977783    1.055336821
   15.040000000   -2.026160480    1.058806568
   15.360000000   -2.365871528    1.064691989
   15.680000000   -2.707697309    1.071835579
   16.000000000   -3.051864084    1.079149158
   16.320000000   -3.398264736    1.085641392
   16.640000000   -3.746493371    1.090439333
   16.960000000   -4.095885852    1.092804059
   17.280000000   -4.445564438    1.092140659
   17.600000000   -4.794484749    1.088002932
   17.920000000   -5.141483459    1.080093256
   18.240000000   -5.485325239    1.068258179
   18.560000000   -5.824747685    1.052480316
   18.880000000   -6.158503148    1.032867174
   19.200000000   -6.485396573    1.009637521
   19.520000000   -6.804318673    0.983105933
   19.840000000   -7.114273938    0.953666100
   20.160000000   -7.414403187    0.921773456
   20.480000000   -7.704000518    0.887927661
   20.800000000   -7.982524695    0.852655384
   21.120000000   -8.249605125    0.816493817
   21.440000000   -8.505042727    0.779975255
   21.760000000   -8.748806078    0.743613045
   22.080000000   -8.981023311    0.707889130
   22.400000000   -9.201970305    0.673243358
   22.720000000   -9.412055754    0.640064664
   23.040000000   -9.611803725    0.608684200
   23.360000000   -9.801834321    0.579370401
   23.680000000   -9.982843086    0.552325971
   24.000000000  -10.155579728    0.527686688
   24.320000000  -10.320826747    0.505521952
   24.640000000  -10.479378493    0.485836895
   24.960000000  -10.632021128    0.468575921
   25.280000000  -10.779513931    0.453627478
   25.600000000  -10.922572291    0.440829868
   25.920000000  -11.061852710    0.429977897
   26.240000000  -11.197940031    0.420830156
   26.560000000  -11.331337076    0.413116726
   26.880000000  -11.462456788    0.406547117
   27.200000000  -11.591616926    0.400818239
   27.520000000  -11.719037292    0.395622240
   27.840000000  -11.844839423    0.390654039
   28.160000000  -11.969048627    0.385618416
   28.480000000  -12.091598194    0.380236518
   28.800000000  -12.212335589    0.374251696
   29.120000000  -12.331030387    0.367434561
   29.440000000  -12.447383695    0.359587216
   29.760000000  -12.561038790    0.350546596
   30.080000000  -12.671592678    0.340186909
   30.400000000  -12.778608292    0.328421166
   30.720000000  -12.881627031    0.315201805
   31.040000000  -12.980181365    0.300520453
   31.360000000  -13.073807219    0.284406857
   31.680000000  -13.162055904    0.266927054
   32.000000000  -13.244505340    0.248180839
   32.320000000  -13.320770372    0.228298628
   32.640000000  -13.390511993    0.207437784
   32.960000000  -13.453445324    0.185778523
   33.280000000  -13.509346222    0.163519475
   33.600000000  -13.558056433    0.140873027
   33.920000000  -13.599487231    0.118060518
   34.240000000  -13.633621504    0.095307416
   34.560000000  -13.660514314    0.072838546
   34.880000000  -13.680291947    0.050873478
   35.200000000  -13.693149521    0.029622148
   35.520000000  -13.699347248    0.009280793
   35.840000000  -13.699205445   -0.009971728
   36.160000000  -13.693098446   -0.027977183
   36.480000000  -13.681447544   -0.044600719
   36.800000000  -13.664713140   -0.059733089
   37.120000000  -13.643386268   -0.073292331
   37.440000000  -13.617979667   -0.085224869
   37.760000000  -13.589018600   -0.095506045
   38.080000000  -13.557031593   -0.104140082
   38.400000000  -13.522541272   -0.111159483
   38.720000000  -13.486055479   -0.116623909
   39.040000000  -13.448058830   -0.120618557
   39.360000000  -13.409004864   -0.123252078
   39.680000000  -13.369308925   -0.124654095
   40.000000000  -13.329341897   -0.124972361
   40.320000000  -13.289424895   -0.124369629
   40.640000000  -13.249825002   -0.123020287
   40.960000000  -13.210752099   -0.121106836
   41.280000000  -13.172356857   -0.118816259
   41.600000000  -13.134729876   -0.116336377
   41.920000000  -13.097902008   -0.113852226
   42.240000000  -13.061845807   -0.111542550
   42.560000000  -13.026478082   -0.109576457
   42.880000000  -12.991663493   -0.108110290
   43.200000000  -12.957219094   -0.107284789
   43.520000000  -12.922919739   -0.107222569
   43.840000000  -12.888504239   -0.108025967
   44.160000000  -12.853682138   -0.109775295
   44.480000000  -12.818140988   -0.112527519
   44.800000000  -12.781553969   -0.116315389
   45.120000000  -12.743587716   -0.121147031
   45.440000000  -12.703910201   -0.127006005
   45.760000000  -12.662198528   -0.133851820
   46.080000000  -12.618146477   -0.141620907
   46.400000000  -12.571471687   -0.150228017
   46.720000000  -12.521922308   -0.159568020
   47.040000000  -12.469283027   -0.169518079
   47.360000000  -12.413380345   -0.179940152
   47.680000000  -12.354086997   -0.190683779
   48.000000000  -12.291325456   -0.201589107
   48.320000000  -12.225070422   -0.212490092
   48.640000000  -12.155350278   -0.223217831
   48.960000000  -12.082247462   -0.233603960
   49.280000000  -12.005897747   -0.243484053
   49.600000000  -11.926488444   -0.252700977
   49.920000000  -11.844255546   -0.261108126
   50.240000000  -11.759479865   -0.268572490
   50.560000000  -11.672482218   -0.274977496
   50.880000000  -11.583617749   -0.280225576
   51.200000000  -11.493269478   -0.284240409
   51.520000000  -11.401841195   -0.286968802
   51.840000000  -11.309749806   -0.288382170
   52.160000000  -11.217417282   -0.288477586
   52.480000000  -11.125262338   -0.287278384
   52.800000000  -11.033691997   -0.284834292
   53.120000000  -10.943093186   -0.281221093
   53.440000000  -10.853824511   -0.276539822
   53.760000000  -10.766208372   -0.270915491
   54.080000000  -10.680523552   -0.264495378
   54.400000000  -10.596998419   -0.257446889
   54.720000000  -10.515804887   -0.249955038
   55.040000000  -10.437053222   -0.242219572
   55.360000000  -10.360787836   -0.234451800
   55.680000000  -10.286984125   -0.226871166
   56.000000000  -10.215546442   -0.219701629
   56.320000000  -10.146307251   -0.213167907
   56.640000000  -10.079027494   -0.207491653
   56.960000000  -10.013398185   -0.202887624
   57.280000000   -9.949043222   -0.199559919
   57.600000000   -9.885523386   -0.197698343
   57.920000000   -9.822341467   -0.197474966
   58.240000000   -9.758948458   -0.199040954
   58.560000000   -9.694750708   -0.202523711
   58.880000000   -9.629117935   -0.208024408
   59.200000000   -9.561391958   -0.215615938
   59.520000000   -9.490896011   -0.225341348
   59.840000000   -9.416944474   -0.237212786
   60.160000000   -9.338852862   -0.251210978
   60.480000000   -9.255947886   -0.267285282
   60.800000000   -9.167577407   -0.285354298
   61.120000000   -9.073120104   -0.305307060
   61.440000000   -8.971994669   -0.327004784
   61.760000000   -8.863668358   -0.350283162
   62.080000000   -8.747664723   -0.374955158
   62.400000000   -8.623570374   -0.400814282
   62.720000000   -8.491040621   -0.427638277
   63.040000000   -8.349803888   -0.455193163
   63.360000000   -8.199664771   -0.483237572
   63.680000000   -8.040505682   -0.511527291
   64.000000000   -7.872287015   -0.539819940
   64.320000000   -7.695045804   -0.567879682
   64.640000000   -7.508892878   -0.595481892
   64.960000000   -7.314008551   -0.622417669
   65.280000000   -7.110636890   -0.648498119
   65.600000000   -6.899078683   -0.673558288
   65.920000000   -6.679683190   -0.697460688
   66.240000000   -6.452838871   -0.720098297
   66.560000000   -6.218963222   -0.741396979
   66.880000000   -5.978491963   -0.761317237
   67.200000000   -5.731867758   -0.779855251
   67.520000000   -5.479528742   -0.797043144
   67.840000000   -5.221897076   -0.812948456
   68.160000000   -4.959367815   -0.827672785
   68.480000000   -4.692298330   -0.841349621
   68.800000000   -4.420998557   -0.854141367
   69.120000000   -4.145722331   -0.866235591
   69.440000000   -3.866660022   -0.877840559
   69.760000000   -3.583932718   -0.889180127
   70.080000000   -3.297588128   -0.900488069
   70.400000000   -3.007598376   -0.912001965
   70.720000000   -2.713859808   -0.923956760
   71.040000000   -2.416194890   -0.936578145
   71.360000000   -2.114356236   -0.950075903
   71.680000000   -1.808032745   -0.964637396
   72.000000000   -1.496857784   -0.980421351
   72.320000000   -1.180419278   -0.997552139
   72.640000000   -0.858271537   -1.016114701
   72.960000000   -0.529948575   -1.036150325
   73.280000000   -0.194978625   -1.057653413
   73.600000000    0.147100497   -1.080569412
   73.920000000    0.496725562   -1.104794041
   74.240000000    0.854292078   -1.130173923
   74.560000000    1.220138886   -1.156508730
   74.880000000    1.594533677   -1.183554876
   75.200000000    1.977659960   -1.211030798
   75.520000000    2.369605957   -1.238623792
   75.840000000    2.770355935   -1.265998355
   76.160000000    3.179784431   -1.292805901
   76.480000000    3.597653786   -1.318695711
   76.800000000    4.023615352   -1.343326884
   77.120000000    4.457214649   -1.366381036
   77.440000000    4.897900665   -1.387575420
   77.760000000    5.345039371   -1.406676110
   78.080000000    5.797931410   -1.423510829
   78.400000000    6.255833779   -1.437980971
   78.720000000    6.717985163   -1.450072343
   79.040000000    7.183634431   -1.459864113
   79.360000000    7.652071645   -1.467535456
   79.680000000    8.122660760   -1.473369390
   80.000000000    8.594873025   -1.477753305
   80.320000000    9.068319983   -1.481175753
   80.640000000    9.542784774   -1.484219087
   80.960000000   10.018250390   -1.487547672
   81.280000000   10.494923411   -1.491891441
   81.600000000   10.973251728   -1.498024747
   81.920000000   11.453934760   -1.506740607
   82.240000000   11.937924718   -1.518820604
   82.560000000   12.426417610   -1.535000952
   82.880000000   12.920832868   -1.555935444
   83.200000000   13.422780745   -1.582156271
   83.520000000   13.934016998   -1.614033980
   83.840000000   14.456384825   -1.651738113
   84.160000000   14.991744554   -1.695200373
   84.480000000   15.541892231   -1.744082447
   84.800000000   16.108468975   -1.797750881
   85.120000000   16.692863762   -1.855261625
   85.440000000   17.296113195   -1.915357078
   85.760000000   17.918802702   -1.976478526
   86.080000000   18.560974577   -2.036796893
   86.400000000   19.222049160   -2.094264577
   86.720000000   19.900766316   -2.146690835
   87.040000000   20.595155062   -2.191842644
   87.360000000   21.302539724   -2.227572164
   87.680000000   22.019591140   -2.251970786
   88.000000000   22.742431240   -2.263548227
   88.320000000   23.466798498   -2.261433091
   88.640000000   24.188280210   -2.245588743
   88.960000000   24.902615105   -2.217035082
   89.280000000   25.606066129   -2.178062745
   89.600000000   26.295858178   -2.132421292
   89.920000000   26.970668718   -2.085456917
   90.240000000   27.631150272   -2.044167933
   90.560000000   28.280452240   -2.017137610
   90.880000000   28.924695003   -2.014293639
   91.200000000   29.573331101   -2.046431335
   91.520000000   30.239305956   -2.124423417
   91.840000000   30.938903323   -2.258022574
   92.160000000   31.691127591   -2.454143620
   92.480000000   32.516435359   -2.714489663
   92.800000000   33.434581280   -3.032360843
   93.120000000   34.461286859   -3.388454484
   93.440000000   35.603374388   -3.745431481
   93.760000000   36.851930083   -4.040984858
   94.080000000   38.172969038   -4.179102207
   94.400000000   39.494968093   -4.019163415
   94.720000000   40.692509041   -3.362458182
   95.040000000   41.565131549   -1.935643457
   95.360000000   41.810330236    0.629411614
   95.680000000   40.989440762    4.820027285
   96.000000000   38.484942513   11.272087054
