#! FIELDS refcv.morethan b1.bias der_refcv.morethan
#! SET min_refcv.morethan 0.0
#! SET max_refcv.morethan 288.0
#! SET nbins_refcv.morethan  301
#! SET periodic_refcv.morethan false
    0.000000000  100.615731249  -11.852038610
    0.960000000  108.732545220   -5.476349678
    1.920000000  111.820656674   -1.263538471
    2.880000000  111.658990086    1.380833922
    3.840000000  109.523647015    2.914711493
    4.800000000  106.305803216    3.686118242
    5.760000000  102.606274621    3.955302928
    6.720000000   98.810692985    3.913090070
    7.680000000   95.148659661    3.695994584
    8.640000000   91.739745458    3.398586846
    9.600000000   88.628767912    3.083532118
   10.560000000   85.812397716    2.789672420
   11.520000000   83.258816949    2.538469354
   12.480000000   80.921867431    2.339082567
   13.440000000   78.750882843    2.192319826
   14.400000000   76.697188379    2.093660595
   15.360000000   74.718072596    2.035525104
   16.320000000   72.778883843    2.008934697
   17.280000000   70.853774936    2.004686381
   18.240000000   68.925511508    2.014144627
   19.200000000   66.984668987    2.029736234
   20.160000000   65.028468137    2.045219182
   21.120000000   63.059437246    2.055783634
   22.080000000   61.084038660    2.058032271
   23.040000000   59.111356619    2.049877852
   24.000000000   57.151910888    2.030387995
   24.960000000   55.216635156    1.999600530
   25.920000000   53.316039494    1.958327255
   26.880000000   51.459561323    1.907959302
   27.840000000   49.655098539    1.850283592
   28.800000000   47.908710865    1.787316749
   29.760000000   46.224470596    1.721160431
   30.720000000   44.604441074    1.653880078
   31.680000000   43.048760087    1.587407589
   32.640000000   41.555805402    1.523467306
   33.600000000   40.122420728    1.463523881
   34.560000000   38.744182001    1.408750014
   35.520000000   37.415686039    1.360011704
   36.480000000   36.130845953    1.317868486
   37.440000000   34.883180199    1.282586021
   38.400000000   33.666084624    1.254158505
   39.360000000   32.473079268    1.232338462
   40.320000000   31.298023942    1.216671650
   41.280000000   30.135298644    1.206535075
   42.240000000   28.979946741    1.201176294
   43.200000000   27.827780407    1.199752489
   44.160000000   26.675449192    1.201368013
   45.120000000   25.520473700    1.205109395
   46.080000000   24.361247217    1.210076981
   47.040000000   23.197008804    1.215412664
   48.000000000   22.027791814    1.220323312
   48.960000000   20.854352060    1.224099707
   49.920000000   19.678079984    1.226130957
   50.880000000   18.500901112    1.225914495
   51.840000000   17.325168972    1.223061852
   52.800000000   16.153554355    1.217300533
   53.760000000   14.988934517    1.208472350
   54.720000000   13.834285502    1.196528646
   55.680000000   12.692580371    1.181522863
   56.640000000   11.566695642    1.163600925
   57.600000000   10.459327831    1.142989913
   58.560000000    9.372921486    1.119985502
   59.520000000    8.309609704    1.094938610
   60.480000000    7.271167667    1.068241668
   61.440000000    6.258979395    1.040314911
   62.400000000    5.274017498    1.011593022
   63.360000000    4.316835464    0.982512449
   64.320000000    3.387571693    0.953499633
   65.280000000    2.485964309    0.924960374
   66.240000000    1.611375569    0.897270489
   67.200000000    0.762824566    0.870767885
   68.160000000   -0.060973169    0.845746130
   69.120000000   -0.861560622    0.822449547
   70.080000000   -1.640690280    0.801069831
   71.040000000   -2.400272582    0.781744162
   72.000000000   -3.142323248    0.764554736
   72.960000000   -3.868910815    0.749529634
   73.920000000   -4.582105587    0.736644902
   74.880000000   -5.283931125    0.725827729
   75.840000000   -5.976319252    0.716960556
   76.800000000   -6.661069392    0.709885989
   77.760000000   -7.339812943    0.704412330
   78.720000000   -8.013983195    0.700319592
   79.680000000   -8.684791191    0.697365813
   80.640000000   -9.353207732    0.695293536
   81.600000000  -10.019951622    0.693836299
   82.560000000  -10.685484087    0.692724992
   83.520000000  -11.350009196    0.691693963
   84.480000000  -12.013479965    0.690486762
   85.440000000  -12.675609766    0.688861413
   86.400000000  -13.335888533    0.686595140
   87.360000000  -13.993603224    0.683488476
   88.320000000  -14.647861899    0.679368709
   89.280000000  -15.297620782    0.674092611
   90.240000000  -15.941713587    0.667548464
   91.200000000  -16.578882443    0.659657336
   92.160000000  -17.207809698    0.650373648
   93.120000000  -17.827149929    0.639685047
   94.080000000  -18.435561507    0.627611604
   95.040000000  -19.031737096    0.614204404
   96.000000000  -19.614432514    0.599543564
   96.960000000  -20.182493458    0.583735759
   97.920000000  -20.734879624    0.566911298
   98.880000000  -21.270685858    0.549220860
   99.840000000  -21.789160018    0.530831927
  100.800000000  -22.289717308    0.511925020
  101.760000000  -22.771950943    0.492689810
  102.720000000  -23.235639033    0.473321172
  103.680000000  -23.680747695    0.454015265
  104.640000000  -24.107430442    0.434965715
  105.600000000  -24.516023981    0.416359949
  106.560000000  -24.907040589    0.398375769
  107.520000000  -25.281157335    0.381178187
  108.480000000  -25.639202421    0.364916606
  109.440000000  -25.982138980    0.349722355
  110.400000000  -26.311046703    0.335706629
  111.360000000  -26.627101699    0.322958859
  112.320000000  -26.931554981    0.311545511
  113.280000000  -27.225710035    0.301509345
  114.240000000  -27.510899880    0.292869118
  115.200000000  -27.788464056    0.285619722
  116.160000000  -28.059725964    0.279732763
  117.120000000  -28.325970935    0.275157523
  118.080000000  -28.588425424    0.271822314
  119.040000000  -28.848237661    0.269636163
  120.000000000  -29.106460072    0.268490805
  120.960000000  -29.364033735    0.268262927
  121.920000000  -29.621775107    0.268816638
  122.880000000  -29.880365194    0.270006090
  123.840000000  -30.140341305    0.271678222
  124.800000000  -30.402091466    0.273675566
  125.760000000  -30.665851546    0.275839061
  126.720000000  -30.931705072    0.278010840
  127.680000000  -31.199585667    0.280036923
  128.640000000  -31.469282039    0.281769787
  129.600000000  -31.740445334    0.283070757
  130.560000000  -32.012598705    0.283812198
  131.520000000  -32.285148857    0.283879450
  132.480000000  -32.557399331    0.283172496
  133.440000000  -32.828565241    0.281607337
  134.400000000  -33.097789185    0.279117043
  135.360000000  -33.364158004    0.275652479
  136.320000000  -33.626720081    0.271182697
  137.280000000  -33.884502855    0.265694991
  138.240000000  -34.136530225    0.259194618
  139.200000000  -34.381839531    0.251704200
  140.160000000  -34.619497819    0.243262823
  141.120000000  -34.848617089    0.233924840
  142.080000000  -35.068368285    0.223758429
  143.040000000  -35.277993769    0.212843911
  144.000000000  -35.476818100    0.201271874
  144.960000000  -35.664256917    0.189141134
  145.920000000  -35.839823816    0.176556581
  146.880000000  -36.003135107    0.163626936
  147.840000000  -36.153912399    0.150462473
  148.800000000  -36.291983000    0.137172740
  149.760000000  -36.417278139    0.123864331
  150.720000000  -36.529829092    0.110638735
  151.680000000  -36.629761302    0.097590315
  152.640000000  -36.717286629    0.084804451
  153.600000000  -36.792693908    0.072355871
  154.560000000  -36.856338020    0.060307216
  155.520000000  -36.908627689    0.048707854
  156.480000000  -36.950012292    0.037592973
  157.440000000  -36.980967918    0.026982963
  158.400000000  -37.001982992    0.016883107
  159.360000000  -37.013543746    0.007283579
  160.320000000  -37.016119842   -0.001840237
  161.280000000  -37.010150449   -0.010527125
  162.240000000  -36.996031059   -0.018829115
  163.200000000  -36.974101327   -0.026810274
  164.160000000  -36.944634209   -0.034545238
  165.120000000  -36.907826610   -0.042117498
  166.080000000  -36.863791790   -0.049617492
  167.040000000  -36.812553687   -0.057140508
  168.000000000  -36.754043316   -0.064784467
  168.960000000  -36.688097353   -0.072647597
  169.920000000  -36.614458972   -0.080826071
  170.880000000  -36.532780957   -0.089411631
  171.840000000  -36.442631086   -0.098489250
  172.800000000  -36.343499710   -0.108134895
  173.760000000  -36.234809430   -0.118413408
  174.720000000  -36.115926721   -0.129376571
  175.680000000  -35.986175308   -0.141061396
  176.640000000  -35.844851073   -0.153488661
  177.600000000  -35.691238220   -0.166661752
  178.560000000  -35.524626396   -0.180565824
  179.520000000  -35.344328463   -0.195167313
  180.480000000  -35.149698549   -0.210413822
  181.440000000  -34.940150035   -0.226234386
  182.400000000  -34.715173091   -0.242540130
  183.360000000  -34.474351397   -0.259225323
  184.320000000  -34.217377671   -0.276168809
  185.280000000  -33.944067637   -0.293235808
  186.240000000  -33.654372101   -0.310280067
  187.200000000  -33.348386803   -0.327146323
  188.160000000  -33.026359775   -0.343673051
  189.120000000  -32.688695929   -0.359695448
  190.080000000  -32.335958706   -0.375048601
  191.040000000  -31.968868592   -0.389570793
  192.000000000  -31.588298442   -0.403106882
  192.960000000  -31.195265532   -0.415511687
  193.920000000  -30.790920392   -0.426653327
  194.880000000  -30.376532487   -0.436416424
  195.840000000  -29.953472901   -0.444705131
  196.800000000  -29.523194243   -0.451445887
  197.760000000  -29.087208055   -0.456589857
  198.720000000  -28.647060051   -0.460114985
  199.680000000  -28.204303603   -0.462027603
  200.640000000  -27.760471911   -0.462363547
  201.600000000  -27.317049355   -0.461188739
  202.560000000  -26.875442564   -0.458599191
  203.520000000  -26.436951764   -0.454720416
  204.480000000  -26.002742980   -0.449706231
  205.440000000  -25.573821693   -0.443736937
  206.400000000  -25.151008522   -0.437016906
  207.360000000  -24.734917517   -0.429771576
  208.320000000  -24.325937587   -0.422243915
  209.280000000  -23.924217578   -0.414690378
  210.240000000  -23.529655434   -0.407376442
  211.200000000  -23.141891832   -0.400571782
  212.160000000  -22.760308570   -0.394545178
  213.120000000  -22.384031947   -0.389559260
  214.080000000  -22.011941220   -0.385865189
  215.040000000  -21.642682142   -0.383697396
  216.000000000  -21.274685487   -0.383268505
  216.960000000  -20.906190300   -0.384764559
  217.920000000  -20.535271541   -0.388340683
  218.880000000  -20.159871625   -0.394117307
  219.840000000  -19.777835278   -0.402177071
  220.800000000  -19.386946985   -0.412562522
  221.760000000  -18.984970230   -0.425274716
  222.720000000  -18.569687606   -0.440272795
  223.680000000  -18.138940839   -0.457474626
  224.640000000  -17.690669667   -0.476758531
  225.600000000  -17.222948519   -0.497966153
  226.560000000  -16.734019909   -0.520906425
  227.520000000  -16.222323490   -0.545360637
  228.480000000  -15.686519760   -0.571088502
  229.440000000  -15.125507485   -0.597835141
  230.400000000  -14.538434048   -0.625338834
  231.360000000  -13.924698043   -0.653339373
  232.320000000  -13.283943651   -0.681586800
  233.280000000  -12.616046545   -0.709850285
  234.240000000  -11.921091295   -0.737926882
  235.200000000  -11.199340559   -0.765649854
  236.160000000  -10.451196618   -0.792896248
  237.120000000   -9.677156119   -0.819593384
  238.080000000   -8.877759257   -0.845723931
  239.040000000   -8.053534899   -0.871329206
  240.000000000   -7.204943515   -0.896510406
  240.960000000   -6.332320035   -0.921427463
  241.920000000   -5.435819063   -0.946295277
  242.880000000   -4.515365028   -0.971377135
  243.840000000   -3.570610060   -0.996975207
  244.800000000   -2.600902413   -1.023418086
  245.760000000   -1.605268226   -1.051045461
  246.720000000   -0.582409303   -1.080190142
  247.680000000    0.469280721   -1.111157794
  248.640000000    1.551679854   -1.144204888
  249.600000000    2.666879479   -1.179515580
  250.560000000    3.817103704   -1.217178378
  251.520000000    5.004606643   -1.257163666
  252.480000000    6.231549010   -1.299303340
  253.440000000    7.499856755   -1.343273983
  254.400000000    8.811065876   -1.388585173
  255.360000000   10.166159146   -1.434574653
  256.320000000   11.565402233   -1.480412160
  257.280000000   13.008188378   -1.525113769
  258.240000000   14.492902616   -1.567568517
  259.200000000   16.016818088   -1.606578916
  260.160000000   17.576038477   -1.640916689
  261.120000000   19.165501602   -1.669394547
  262.080000000   20.779059717   -1.690954192
  263.040000000   22.409651833   -1.704769765
  264.000000000   24.049582008   -1.710364758
  264.960000000   25.690914974   -1.707738769
  265.920000000   27.325996027   -1.697498506
  266.880000000   28.948095559   -1.680984855
  267.840000000   30.552169331   -1.660384763
  268.800000000   32.135712991   -1.638812835
  269.760000000   33.699672729   -1.620342959
  270.720000000   35.249352461   -1.609964755
  271.680000000   36.795230698   -1.613433051
  272.640000000   38.353566090   -1.636970831
  273.600000000   39.946628368   -1.686776924
  274.560000000   41.602339654   -1.768278998
  275.520000000   43.353048165   -1.885059940
  276.480000000   45.233080531   -2.037371193
  277.440000000   47.274628122   -2.220129885
  278.400000000   49.501414708   -2.420277314
  279.360000000   51.919464831   -2.613354178
  280.320000000   54.504141589   -2.759122670
  281.280000000   57.182445845   -2.796036617
  282.240000000   59.809362599   -2.634328021
  283.200000000   62.136800346   -2.147441049
  284.160000000   63.773391208   -1.161502343
  285.120000000   64.133098523    0.557531161
  286.080000000   62.370208880    3.319459372
  287.040000000   57.297861166    7.528633993
  288.000000000   47.286779394   13.706501863
